digraph Tree {
node [shape=box] ;
0 [label="X[0] <= 4.5\nentropy = 0.415\nsamples = 829\nvalue = [3, 785, 1, 6, 18, 6, 10]"] ;
1 [label="X[1] <= 36.5\nentropy = 0.325\nsamples = 819\nvalue = [3, 785, 1, 6, 18, 6, 0]"] ;
0 -> 1 [labeldistance=2.5, labelangle=45, headlabel="True"] ;
2 [label="X[1] <= 2.0\nentropy = 0.074\nsamples = 509\nvalue = [2, 505, 0, 2, 0, 0, 0]"] ;
1 -> 2 ;
3 [label="X[0] <= 1.0\nentropy = 0.918\nsamples = 3\nvalue = [2, 1, 0, 0, 0, 0, 0]"] ;
2 -> 3 ;
4 [label="entropy = 0.0\nsamples = 1\nvalue = [1, 0, 0, 0, 0, 0, 0]"] ;
3 -> 4 ;
5 [label="X[0] <= 3.0\nentropy = 1.0\nsamples = 2\nvalue = [1, 1, 0, 0, 0, 0, 0]"] ;
3 -> 5 ;
6 [label="entropy = 0.0\nsamples = 1\nvalue = [0, 1, 0, 0, 0, 0, 0]"] ;
5 -> 6 ;
7 [label="entropy = 0.0\nsamples = 1\nvalue = [1, 0, 0, 0, 0, 0, 0]"] ;
5 -> 7 ;
8 [label="X[0] <= 1.5\nentropy = 0.037\nsamples = 506\nvalue = [0, 504, 0, 2, 0, 0, 0]"] ;
2 -> 8 ;
9 [label="entropy = 0.0\nsamples = 487\nvalue = [0, 487, 0, 0, 0, 0, 0]"] ;
8 -> 9 ;
10 [label="X[0] <= 2.5\nentropy = 0.485\nsamples = 19\nvalue = [0, 17, 0, 2, 0, 0, 0]"] ;
8 -> 10 ;
11 [label="X[2] <= 1282.0\nentropy = 0.863\nsamples = 7\nvalue = [0, 5, 0, 2, 0, 0, 0]"] ;
10 -> 11 ;
12 [label="X[2] <= 230.0\nentropy = 0.65\nsamples = 6\nvalue = [0, 5, 0, 1, 0, 0, 0]"] ;
11 -> 12 ;
13 [label="X[2] <= 191.5\nentropy = 0.918\nsamples = 3\nvalue = [0, 2, 0, 1, 0, 0, 0]"] ;
12 -> 13 ;
14 [label="entropy = 0.0\nsamples = 2\nvalue = [0, 2, 0, 0, 0, 0, 0]"] ;
13 -> 14 ;
15 [label="entropy = 0.0\nsamples = 1\nvalue = [0, 0, 0, 1, 0, 0, 0]"] ;
13 -> 15 ;
16 [label="entropy = 0.0\nsamples = 3\nvalue = [0, 3, 0, 0, 0, 0, 0]"] ;
12 -> 16 ;
17 [label="entropy = 0.0\nsamples = 1\nvalue = [0, 0, 0, 1, 0, 0, 0]"] ;
11 -> 17 ;
18 [label="entropy = 0.0\nsamples = 12\nvalue = [0, 12, 0, 0, 0, 0, 0]"] ;
10 -> 18 ;
19 [label="X[1] <= 38.0\nentropy = 0.616\nsamples = 310\nvalue = [1, 280, 1, 4, 18, 6, 0]"] ;
1 -> 19 ;
20 [label="entropy = 0.0\nsamples = 18\nvalue = [0, 0, 0, 0, 18, 0, 0]"] ;
19 -> 20 ;
21 [label="X[1] <= 273.5\nentropy = 0.314\nsamples = 292\nvalue = [1, 280, 1, 4, 0, 6, 0]"] ;
19 -> 21 ;
22 [label="X[1] <= 260.5\nentropy = 0.574\nsamples = 136\nvalue = [1, 124, 1, 4, 0, 6, 0]"] ;
21 -> 22 ;
23 [label="X[1] <= 80.0\nentropy = 0.4\nsamples = 128\nvalue = [0, 120, 0, 4, 0, 4, 0]"] ;
22 -> 23 ;
24 [label="X[1] <= 78.5\nentropy = 0.433\nsamples = 45\nvalue = [0, 41, 0, 0, 0, 4, 0]"] ;
23 -> 24 ;
25 [label="X[2] <= 1300.0\nentropy = 0.271\nsamples = 43\nvalue = [0, 41, 0, 0, 0, 2, 0]"] ;
24 -> 25 ;
26 [label="entropy = 0.0\nsamples = 37\nvalue = [0, 37, 0, 0, 0, 0, 0]"] ;
25 -> 26 ;
27 [label="X[2] <= 1355.5\nentropy = 0.918\nsamples = 6\nvalue = [0, 4, 0, 0, 0, 2, 0]"] ;
25 -> 27 ;
28 [label="entropy = 0.0\nsamples = 1\nvalue = [0, 0, 0, 0, 0, 1, 0]"] ;
27 -> 28 ;
29 [label="X[2] <= 1634.0\nentropy = 0.722\nsamples = 5\nvalue = [0, 4, 0, 0, 0, 1, 0]"] ;
27 -> 29 ;
30 [label="entropy = 0.0\nsamples = 2\nvalue = [0, 2, 0, 0, 0, 0, 0]"] ;
29 -> 30 ;
31 [label="X[2] <= 1871.5\nentropy = 0.918\nsamples = 3\nvalue = [0, 2, 0, 0, 0, 1, 0]"] ;
29 -> 31 ;
32 [label="entropy = 0.0\nsamples = 1\nvalue = [0, 0, 0, 0, 0, 1, 0]"] ;
31 -> 32 ;
33 [label="entropy = 0.0\nsamples = 2\nvalue = [0, 2, 0, 0, 0, 0, 0]"] ;
31 -> 33 ;
34 [label="entropy = 0.0\nsamples = 2\nvalue = [0, 0, 0, 0, 0, 2, 0]"] ;
24 -> 34 ;
35 [label="X[1] <= 150.5\nentropy = 0.279\nsamples = 83\nvalue = [0, 79, 0, 4, 0, 0, 0]"] ;
23 -> 35 ;
36 [label="X[1] <= 148.5\nentropy = 0.461\nsamples = 41\nvalue = [0, 37, 0, 4, 0, 0, 0]"] ;
35 -> 36 ;
37 [label="entropy = 0.0\nsamples = 36\nvalue = [0, 36, 0, 0, 0, 0, 0]"] ;
36 -> 37 ;
38 [label="X[0] <= 3.5\nentropy = 0.722\nsamples = 5\nvalue = [0, 1, 0, 4, 0, 0, 0]"] ;
36 -> 38 ;
39 [label="entropy = 0.0\nsamples = 4\nvalue = [0, 0, 0, 4, 0, 0, 0]"] ;
38 -> 39 ;
40 [label="entropy = 0.0\nsamples = 1\nvalue = [0, 1, 0, 0, 0, 0, 0]"] ;
38 -> 40 ;
41 [label="entropy = 0.0\nsamples = 42\nvalue = [0, 42, 0, 0, 0, 0, 0]"] ;
35 -> 41 ;
42 [label="X[0] <= 0.5\nentropy = 1.75\nsamples = 8\nvalue = [1, 4, 1, 0, 0, 2, 0]"] ;
22 -> 42 ;
43 [label="entropy = 1.0\nsamples = 2\nvalue = [1, 0, 1, 0, 0, 0, 0]"] ;
42 -> 43 ;
44 [label="X[2] <= 714.5\nentropy = 0.918\nsamples = 6\nvalue = [0, 4, 0, 0, 0, 2, 0]"] ;
42 -> 44 ;
45 [label="entropy = 0.0\nsamples = 3\nvalue = [0, 3, 0, 0, 0, 0, 0]"] ;
44 -> 45 ;
46 [label="X[2] <= 1404.5\nentropy = 0.918\nsamples = 3\nvalue = [0, 1, 0, 0, 0, 2, 0]"] ;
44 -> 46 ;
47 [label="entropy = 0.0\nsamples = 2\nvalue = [0, 0, 0, 0, 0, 2, 0]"] ;
46 -> 47 ;
48 [label="entropy = 0.0\nsamples = 1\nvalue = [0, 1, 0, 0, 0, 0, 0]"] ;
46 -> 48 ;
49 [label="entropy = 0.0\nsamples = 156\nvalue = [0, 156, 0, 0, 0, 0, 0]"] ;
21 -> 49 ;
50 [label="entropy = 0.0\nsamples = 10\nvalue = [0, 0, 0, 0, 0, 0, 10]"] ;
0 -> 50 [labeldistance=2.5, labelangle=-45, headlabel="False"] ;
}